524.245425696
335.234224042
329.966877116
347.007427366
329.020284977
331.282889043
330.005293485
529.12919781
327.765810138
38.8645915753
331.128445225
331.174078673
329.203871698
516.31922525
279.036978518
441.5140621
366.988273684
331.164104115
344.087766007
328.698922011
343.092193142
335.539800021
328.173645872
328.308507262
356.324810438
329.950181669
354.164198037
345.930402658
324.083633757
328.796965794
352.686500925
329.844611598
505.276893065
333.329873716
329.467920159
378.196909034
347.342300599
329.805246095
38.8505552975
338.904328804
342.670430592
424.101241851
335.950139704
38.8564242347
356.604790034
329.455389079
-125.111812208
328.589799947
333.211832298
354.724839563
258.882776643
318.341393237
343.398772586
309.437583212
336.9542206
325.418392578
343.771915509
258.50584309
339.395436663
69.5707033005
345.740856184
325.75191939
328.219452063
526.791309968
357.235055937
270.083535964
292.477017204
345.870302769
312.059858215
336.728934521
310.818427729
315.373989667
332.132028301
340.937551246
298.106426519
344.116624583
299.537275138
307.749068931
333.583130589
330.063213427
298.592007968
343.254033528
260.573885465
318.647329518
342.63023668
289.789156712
304.21391014
343.211670506
69.5547493081
312.349662154
313.446854493
272.913431339
316.067685265
69.5613064085
299.216055605
342.539382668
318.049691522
329.190317124
324.92866215
300.379668349
65.9341049414
-64.8478304005
-0.324277137375
0.633501460274
-17.1208292117
16.5275652286
3.07640830469
-2.75318736309
-12.190986217
11.4049930504
-4.97186262974
3.71507691816
-17.2805791954
16.9587396783
66.9364639114
-67.4140523193
-12.9515169764
13.1882338435
-37.5609134242
38.2312915689
-17.6687856901
19.4229624219
-4.77623404578
3.43737392752
-5.40620880731
4.88070650892
-128.840569924
127.16282833
16.3160118456
-14.3278873825
37.3190476428
-35.8641446673
15.1465615172
-13.9233427466
-18.6483944176
18.6628754965
2.11700997355
-1.94096482807
-11.5405617877
10.555155336
4.11188177888
-2.59614913884
2.33651974946
-2.121768268
-8.09590271744
6.98303370875
-13.8514262377
13.9039750022
11.5579462244
-10.8378423898
-16.5778006578
17.14854837
9.91404263324
-10.760485153
5.14704213398
-4.98391042856
-6.42379778859
6.96263618068
-6.5561504122
6.0615352722
12.8448952153
-11.4428719151
-16.7658232971
15.6201307472
59.7622834445
-58.3765702477
0.690455538754
-0.199879661649
-14.8197655612
16.3412418079
14.8924505617
-15.4270579172
7.41223656284
-8.30620762887
-16.3255747303
15.9640346275
-37.0785967265
38.7218923256
3.35668943391
-3.57972466284
0.797587294004
-1.88354155451
32.4766656932
-31.1641508339
2.22777713929
-0.748182087942
-37.2814997187
38.5160131428
9.8943575382
-9.94544045887
-15.0979777206
15.9210649023
93.0659770504
-92.7097648442
-4.97412987432
6.21945376278
-4.32651774656
4.25437137179
10.1954357491
-8.37113813709
