382.592391513
264.25294619
245.236826892
278.436987416
249.964313499
258.191882271
244.847630525
384.345746812
246.607690641
59.1953201461
244.572745567
258.365419609
255.254876971
322.451112388
211.421120517
347.373404828
296.530811064
244.45325968
275.309356388
250.340334077
274.021810179
265.156137767
252.42126145
246.551288743
286.936891118
245.174010015
284.933614004
277.082068552
247.173387437
254.075386548
283.033614291
246.010891851
374.633647095
262.285691729
246.23349452
307.446171594
278.204604125
246.010821327
58.6825781438
269.13797688
273.663281506
336.586303262
265.574881302
58.7399256817
287.620692971
246.314115384
-115.111442082
254.176757536
260.995714409
285.806061088
198.218501816
248.960914187
295.020938062
239.198063523
280.669356707
259.526200161
295.912779521
197.848524446
285.427520412
58.8092006627
300.30914121
259.839292441
263.5140794
427.181660647
277.73307236
206.380258126
220.459352018
300.613926707
242.08749015
279.712327042
239.768321508
244.016841288
270.42660227
288.502518937
225.174180322
296.169728661
226.536008307
236.060348919
271.526482325
266.757956093
224.444089389
294.129056917
199.11547704
248.513790708
292.627434538
220.362491293
231.099347787
294.0277882
58.6565373401
240.51628858
243.730024937
206.612243966
245.343035947
58.6609427008
227.001374437
292.411889315
329.758242672
265.069394483
259.194636111
228.096642704
52.9212227264
-53.6033491314
1.88306289759
-1.59696056388
-23.7679809641
23.3246480997
7.8582486486
-7.71249789093
-16.2500924408
15.5744059578
-4.96643346155
3.74339081572
-24.1028188155
23.9349437314
52.808704742
-55.0883547149
-18.2048745561
18.4721247648
-42.5199926587
39.5897627002
-25.0419053088
26.8597909315
-4.7687291763
3.35638116312
-6.34152448284
5.77352859302
-95.3442621548
96.1326123314
1.91675893062
0.395877048951
39.9293518684
-39.7789755071
22.9864169152
-22.3197198985
-26.0822152811
26.1537637709
6.33875116592
-6.40828684239
-15.4178643452
14.4328510862
8.54642780014
-7.26432383785
5.36969566276
-5.30069370963
-10.4084000698
9.27550999956
-19.5053341688
19.5914681828
18.6673263605
-18.3726246532
-23.386056675
24.007245293
16.7666387719
-18.017664407
10.2988786092
-10.4170843979
-9.75777516901
10.3216680355
-8.11161081168
7.58571552224
19.9791036868
-18.9581445561
-23.1845223158
22.0753795487
51.1292587008
-51.5006599045
2.77271055878
-2.39323616191
-21.0168978244
22.5840240345
22.4476640106
-23.6728099936
13.3180774246
-14.5265597231
-22.7308384233
22.4092041989
-42.1033084467
40.3047762749
7.26772867723
-7.68361281991
4.66497592222
-5.9825680561
37.5996675241
-37.4485691677
5.11994830377
-3.78169528016
-42.2864886509
40.0018215146
16.7623950202
-17.2415776934
-21.2564662511
22.121478055
113.701157516
-111.007438058
-6.2782891728
7.49862076072
-3.87895180194
3.71782492869
16.8670248852
-15.437371452
