230.725947268
323.285541517
327.744392421
258.473156412
378.634368664
213.138490432
235.135493739
111.021149428
338.925200422
265.972429986
322.626452674
219.973400361
175.074156658
319.734067899
209.04194502
263.126950007
235.891920893
237.90728794
210.837917985
204.553646035
370.031954805
186.255122422
212.909080367
188.000029813
340.213410481
192.264226599
1336.40600135
160.246607144
495.245227706
365.807801928
303.599430627
220.943860489
225.184669499
178.548913363
222.916381444
228.205149083
-1301.24766416
-131.895095281
350.217883734
-97.6378476343
337.922402063
230.424263635
345.093207864
240.351537147
170.699181951
278.023294685
272.874887749
-131.772435641
236.355894178
236.443606885
248.645130356
253.148845123
252.273448483
238.5538513
269.67168102
272.782029841
235.878474532
135.275794521
255.778055736
239.185752704
252.218307118
262.790580218
316.031548697
247.919310301
278.607357743
232.698513023
244.275216879
243.03554413
276.117024977
284.743502466
265.745963247
306.171369287
273.107536473
304.395055416
258.585338158
299.816867642
-1054.06759893
325.859555843
-508.837993171
265.381743093
247.598646239
261.363343593
255.256482355
313.349684789
242.920459583
251.454020724
1331.37933299
117.600027715
261.679162348
147.012056377
257.417077069
248.961454788
257.269326007
241.806696287
319.380775463
241.114299948
240.24839625
117.482630043
243.948101447
243.908826906
-17.5983488741
17.2598137568
32.7322198935
-34.4772743109
35.0075017337
-35.2423298405
0.934420825498
-2.66784130009
61.0270294126
-62.6890809089
-34.84766613
33.9107475901
-13.6285689992
12.2264729061
125.365940531
-127.113484377
40.0999293127
-41.2370160405
4.70526461199
-6.80259296594
33.0924098611
-33.0900833426
-27.7815569414
28.2422660387
-79.9804862303
81.7847826781
30.3414906399
-30.6896315901
-37.699131935
38.6549640755
1.80939531794
-3.02634931103
-12.0835670713
12.5651820701
-10.7419828357
10.7667359217
-35.5086952146
36.5244560196
-41.6629498308
42.3649800876
56.7830182801
-57.5482462603
-62.8359360134
63.7295293653
-34.4155658106
33.5982189662
-60.3795863121
61.3077707963
43.0489788512
-41.7593256207
-55.1108283894
55.8996229887
62.2332408431
-60.3101821694
-104.484426527
107.334111904
100.515188242
-103.623430858
55.7057084207
-56.2568448192
25.1912675532
-25.4861453647
-25.4474111863
25.9382267992
-21.8197494824
20.8751137583
-72.9858216768
74.7843477745
-8.30103474276
8.13812681179
-17.6730068548
19.3460758652
100.419492741
-95.4616095579
34.7048061977
-34.768179371
47.7558942566
-48.6970934629
54.8193278418
-57.7037588283
42.2772256609
-41.5178619802
-15.7067816594
16.995804257
43.7338951051
-45.7281007778
-7.30167102407
8.48321511441
-86.3711772324
87.7188561591
13.1417573573
-12.9793718803
10.4537324443
-10.6413947665
34.6949602367
-34.7536724686
-11.162578012
10.8379624836
-10.6559559536
11.1869815956
