258.24417126
356.668932677
361.965389278
285.208825523
426.760075826
236.170860731
265.014994881
228.954736356
376.325425031
292.43998779
355.964103994
244.903041025
181.857539028
351.625315369
230.96675536
290.08890651
263.788449029
265.832023037
233.327933537
225.350463079
415.941190146
201.035199296
235.981966284
203.560742449
378.269636389
209.408806468
1636.96056329
107.5923723
727.790806959
411.146841856
333.212139251
246.355916126
251.729246254
188.992312294
254.311684287
255.373863077
-1545.07518562
-404.327491858
391.448356461
-205.472644987
375.692632696
257.959449586
384.460357781
268.383251881
172.121313265
304.747841965
299.467682139
-207.437642508
264.380825304
264.473029276
293.102762671
278.401133239
277.348455198
275.794872204
291.388761571
316.046029391
282.180197673
90.0726849948
279.858488356
274.090120908
277.48297337
307.440018668
341.802806629
273.872478751
320.668243938
270.289259501
287.764217341
286.024756694
318.625713894
325.252136538
287.904053504
338.748264992
316.188033481
337.869000705
282.399024334
335.340422957
-1246.43644919
328.864440933
-881.558408836
287.812399927
274.848443636
305.829202259
299.965830658
341.504723688
287.906909048
296.04911258
1777.70726879
71.5572031148
284.929288397
301.162578028
281.449266586
293.296851925
280.990501355
283.817933706
341.700648556
272.892409059
273.197111132
304.237570347
287.049916468
286.978933485
-21.0217189438
22.3426463546
34.6201856806
-36.3441335427
37.5046456011
-37.6945947156
-2.91019111369
0.971409259054
71.8307387827
-73.1078994367
-42.2669895755
40.8307531829
-17.9025846211
16.2585101391
150.977803681
-154.401174584
44.3021104857
-46.3150477691
1.17949769296
-4.45484483218
34.8837851512
-35.8568621193
-34.428737389
34.4648648644
-89.4668615912
90.3210422785
31.6905892862
-32.026014362
-45.5124417342
45.9277773134
-1.45369472231
0.0899596820768
-17.0325713939
17.2233901012
-15.5472516361
15.2943871802
-43.165928338
43.6584874419
-49.8634425626
49.9782322309
66.1120915294
-66.5464304937
-72.0016174097
72.1021102974
-41.8644584811
40.5519049013
-69.4861000171
69.6427410334
47.5072109728
-46.0905086313
-64.0438725307
64.1122469101
34.7679637379
-32.3606787342
-115.98523566
118.097503639
174.278652999
-174.764912646
64.375175145
-64.6226907079
24.5698144841
-24.9390661159
-32.0047549663
32.0765894529
-27.8561735022
26.5395959199
-82.4017661927
83.3000062804
-13.6252870759
13.0875549628
-23.3599282773
24.678818648
121.287014303
-121.048591654
44.2950577194
-43.4082439928
53.8552129386
-54.5985517289
67.3339087766
-70.9945144213
46.3797192905
-45.5072914854
-21.1559112625
22.1103085593
48.9223420278
-50.75319798
-11.9735534256
12.8805338355
-96.0388585349
96.3786524045
10.2622317132
-10.2632962323
7.26125118775
-7.6246722615
68.4104726451
-70.7591050181
-16.0933789587
15.4796871397
-15.5820996808
15.8211453304
