234.087734482
326.914332562
331.485198813
261.288053979
384.087907821
215.875477098
238.810133019
111.38716243
343.042297581
268.689401607
326.227521425
223.071071409
173.616174993
323.156646114
211.522563723
265.955662773
239.205928741
241.18332415
213.44045481
206.722421897
375.200950789
186.605399422
215.637917245
188.575372949
344.41098845
193.326131584
1372.26895935
155.106447595
500.764085751
370.905550884
306.709726675
224.085484939
228.467263229
177.783183764
226.659568128
231.545968852
-1324.6873364
-130.292042589
354.806481342
-96.1539357634
342.085097629
233.778220097
349.459443609
243.567791973
168.393100582
280.738623523
275.578801376
-130.230838442
239.652090016
239.739374312
252.502836498
258.055141464
257.322697268
242.282336523
275.226793939
276.663208053
239.971902244
136.033688336
261.031519922
242.969697482
257.127570315
266.681178803
319.879026451
252.798714489
282.47138849
236.518838954
248.071503246
246.812308087
279.981196454
288.579297353
271.3190893
309.936612062
276.983285012
308.160328084
263.774450137
303.59289641
-1086.41378406
330.040467462
-513.729707051
270.944458266
252.119352244
265.243734807
259.137008222
317.127971602
247.247424006
255.314566743
1354.34813713
117.236729223
267.062152095
148.835313045
262.640284615
252.808857918
262.677496618
245.573656744
323.268907979
245.104458739
244.153556652
117.181024308
247.751660283
247.70899372
-15.7289911691
16.6056199301
33.308408878
-35.6575501551
35.6382371757
-36.4686090469
0.707798087168
-3.14129811001
62.8419945919
-65.0389193071
-34.9913974549
33.1835599276
-13.7837607125
11.640525599
129.744031319
-130.859364254
40.9768854721
-42.6953811828
4.49573684849
-7.27936941547
33.6421981738
-34.244198905
-27.8963791673
28.5185181449
-80.5002763405
82.2678997962
30.7721832578
-30.7229132281
-37.8673638566
38.9321984178
1.53380402579
-2.42663806048
-12.2357376114
12.9543516867
-10.9046702349
11.1740507444
-35.6669221618
36.7997412107
-41.8661555179
42.6576944586
58.381519662
-58.6908658778
-63.2166631574
64.1241670432
-34.5612327822
33.8714223946
-60.7410271226
61.6903895864
43.9966609446
-42.2903856003
-55.426576943
56.2540786904
58.4434820035
-61.1042957255
-105.258739545
107.986735149
100.450557975
-99.7226416168
57.2210402849
-57.3225620234
25.3955007006
-25.3219716713
-25.5654847982
26.222581697
-21.9361276197
21.1803807612
-73.4628860603
75.2415470364
-8.43455522945
8.48154785669
-17.7951367852
19.6708395204
95.9944081628
-97.1279340395
34.1591921389
-35.3947528963
48.9300102486
-49.441817534
56.836211706
-57.1669683207
43.1651322831
-41.9917411159
-15.8363856513
17.3387915112
44.7427565288
-46.3104928365
-7.48171642084
8.91537464059
-86.9590964666
88.2486845348
13.0055067672
-12.5113444475
10.2785015157
-10.1425437261
34.1555422675
-35.3887479042
-11.3209623005
11.235361865
-10.8149955512
11.584897174
