246.638483506
329.702951387
334.191227357
269.583538901
386.007597885
228.645817882
251.794410722
155.885765911
345.443108632
275.797783252
328.997163127
236.282026278
169.51706746
326.147907746
223.829018381
274.228324079
251.13255222
252.795455857
225.924958471
218.304510546
377.200071547
192.278305129
228.327094715
195.161900507
346.758589736
201.721443965
1466.76807889
104.669314178
520.935501578
372.919830207
310.209425577
237.124603882
241.404695864
177.913204234
238.772780968
244.306700303
-1362.75480467
-144.635297885
356.978731178
-132.891875084
344.448831878
246.307191127
351.741714614
254.579473234
157.733568648
286.265674979
281.679177472
-111.425301086
251.322587881
251.396480321
263.958254872
271.370326213
271.013781665
253.317014935
291.270254609
288.836502496
251.878646335
152.533089675
275.321082335
254.03514466
270.464367909
278.50630334
335.176666646
266.103106678
294.765263242
247.760205608
259.300200841
257.987222178
292.167473749
301.04519175
287.080683747
323.601169411
289.095173294
321.653957821
277.904494169
316.751425131
-1152.54873223
348.998273661
-550.666984962
286.555813805
264.541863006
276.985515174
270.7344088
331.65872108
259.720867301
266.78327797
1451.88091535
145.380350786
281.835156048
179.203134596
276.821716586
264.208043076
277.417147296
256.717376017
339.326565382
256.515188106
255.420275515
154.809034511
258.998115527
258.945008267
-14.6628188176
16.7850125092
31.7674503481
-32.7034530476
33.999272274
-33.4106904806
0.460972620532
-1.45416724427
61.5001729268
-62.3960139039
-33.4075584937
32.5713711099
-12.9983851296
12.2300436545
138.70658405
-139.722146624
39.3491523689
-40.6620254355
3.95884820161
-6.27742038045
32.072410039
-32.2464217599
-26.4342434282
27.146589524
-79.6063863392
80.7291777029
29.0709620719
-28.5635303115
-36.2448317474
37.2230220269
0.93249685573
-1.3126507479
-11.4084638219
12.4434549235
-10.1768945604
10.7824825976
-34.0617824857
35.1364031123
-40.2342119595
40.8696209959
56.9273251588
-56.9009058407
-61.8110771467
62.2757025685
-32.9759756607
32.2633163864
-59.2910064127
59.8260902329
42.4672094661
-40.3748719309
-53.8906314029
54.3717822075
35.8733423113
-35.3209575137
-107.201072759
108.976335926
132.613695185
-131.737740685
55.7752710451
-55.5382845741
23.9905349401
-23.466203902
-24.1385344756
24.9023182271
-20.6408998373
20.0626047143
-72.3610115513
73.5632804425
-7.11888038074
7.42556630474
-16.6179382964
18.7134507066
105.002579427
-108.150295811
34.5198357255
-33.7452368429
47.4386502892
-47.5851537942
44.951038581
-43.1013985825
41.6133817083
-40.0472162301
-14.7548541915
16.508498747
43.1180549475
-44.291620709
-6.88283806992
8.67176522077
-86.4587315813
87.0170305092
12.078951177
-11.1148953374
9.50579665762
-8.90217215145
17.6037732227
-16.7246992727
-10.5214292553
10.7577514223
-10.0205009351
11.1120567716
