216.544497814
302.804862597
306.562132922
245.778202898
347.277267366
201.207974387
219.153339492
72.1146167313
315.518153638
253.196889225
302.299939917
206.774513994
171.545568934
300.322109393
197.924245996
250.246130448
221.887295344
224.050609303
199.332368148
194.341452557
340.19135371
180.052927607
200.986906056
181.38924753
316.140337057
184.712834402
1154.05413468
160.289016211
429.982133201
336.347502253
286.22770814
207.548062211
211.240534406
174.060455703
206.018807897
214.039290151
-1173.05201879
-123.670156507
323.79636791
-94.6163103822
314.006431882
216.211072149
319.97623948
226.627113271
168.104622058
264.142541667
259.43213431
-121.613438395
222.364684916
222.451055858
231.299749805
233.501084503
232.072224912
222.588184826
247.818655547
256.653749784
216.991194479
149.171891375
234.89731051
223.17642237
232.50713278
245.769823743
309.132635353
228.14951934
263.108666111
216.1654611
227.219119578
226.13328078
260.332318796
270.103776583
243.630500092
295.939505163
257.02497328
293.672028466
237.734418908
287.977191434
-909.3203728
323.717151053
-455.726874608
243.223704247
229.040173483
244.309951704
237.95520414
305.336018412
223.282310114
234.057584699
1223.24350569
117.402004789
240.148738325
144.352331316
236.396619137
231.612394753
235.653780151
225.028481114
313.841596577
224.312596572
223.721304715
115.813562037
226.936130957
226.888473856
-14.7453341214
15.0541518248
30.0862207493
-32.3090152617
32.0097377197
-32.7637413356
3.6869791918
-4.87261167159
51.3786587371
-54.4908920061
-32.1211975912
31.4780522281
-10.7018851733
10.1319251551
109.214279018
-111.94010904
35.7256238013
-37.583554417
7.15569792388
-8.80004129072
30.5851017687
-31.0346381749
-25.0281153876
25.9483774019
-77.8003367633
79.0078790715
28.4262674328
-29.1217482681
-34.9874691882
36.1396473204
4.65372987917
-5.2784086627
-9.15130745769
10.3156198232
-7.78935240124
8.49887061921
-32.7807409827
34.0371078474
-38.9707575889
39.7562347059
48.3811579197
-50.4238501062
-60.394177813
60.9312161227
-31.6796087911
31.1508785029
-57.9026161683
58.5144701509
38.3506331341
-37.8386087269
-52.5616330907
53.1333968238
60.246342072
-63.1963648173
-102.685925235
104.645318692
99.7565189993
-99.7696795192
47.8268886702
-49.592503071
24.7477858464
-25.1746526408
-22.6635490305
23.6360403931
-19.0032581003
18.6251542318
-70.7021305898
71.9750316162
-5.39396329535
6.04592622906
-14.8241502879
17.1186805524
83.2978304507
-86.9814846272
37.2413412516
-36.9286652075
41.818307999
-43.715443367
59.8666221905
-59.7178601141
37.9356521168
-37.9036809296
-12.8297347047
14.7671157405
38.665326108
-41.4812768249
-4.30815698565
6.17609246288
-84.2877814471
84.9467476608
14.9271056534
-14.4766260247
12.5655187342
-12.3910959881
36.7166492368
-36.4609420068
-8.20756547666
8.56533626418
-7.69885499707
8.91435581615
