7.06380902865
5.92065444865
3.08046267963
6.29793344309
5.78281693945
8.3468136654
0.977255482401
1.2896327128
3.55024515946
7.02395193443
3.96694820872
7.80166218176
9.42799720477
4.37301817532
8.32208714436
1.08141853319
6.75848451723
7.48986016531
8.17520999086
8.27499982831
4.78022117634
9.37665042515
7.64014268313
8.38364726532
6.40477128528
9.41928148125
2.17235316106
9.52455954642
-1.69971068568
4.84117346977
5.90652490635
7.86330164047
6.65809615216
8.98725760169
0.560068872877
7.58154995037
-1.00401086656
-1.97471454418
6.46802382902
2.03896427974
4.99172413488
7.72821897005
4.17554106338
6.56497294634
9.22998323743
5.37814546414
5.92733986477
-2.0065901742
6.90686963632
6.92378705091
7.48887310894
5.21315595269
3.04036175749
6.45122043329
4.31685715743
8.02762857554
0.749378400918
0.678984935117
3.07638486328
6.05793673927
4.52375170727
7.87810972397
9.00231146869
2.5255172172
8.17804685562
1.46941330553
7.19984942311
6.820238465
8.16972841337
8.37130188619
3.38048552577
8.40778923093
8.50982354745
9.08086251107
5.14278972962
7.9974245161
-0.133878663477
9.73087502666
-2.32321743343
3.93669562535
5.63498360424
7.70672143046
8.20346759129
9.24254065925
0.548445668271
7.35345586873
-2.09412809407
-2.40661052765
4.98667686182
0.64045366643
4.79984968974
7.21344154936
2.87488007389
7.13617528534
9.36292941326
6.0066389796
6.10874477576
-2.13504373713
7.22671314389
7.21698137938
-1.03750503782
1.22807366677
-0.397683879144
-0.294101894024
1.89370503804
-0.624172702574
-0.845437618337
0.0839878588727
-0.182517311678
-0.764776992798
-2.02041987666
1.35825839147
2.40085794051
-2.51659640564
2.26576914473
-2.59847209678
1.24090111911
-1.00757078679
-1.16201260521
0.0211540470477
1.32978197306
0.016088929294
-1.13912203183
1.99782967724
-2.00979366721
3.09833247546
1.77665306257
-0.467042321839
-1.23321741895
2.47450562002
2.43412665659
-1.95602682218
-0.925997905754
1.03457818176
-1.14739524079
0.774034838894
-1.67281117587
1.97222193141
-2.04738680649
1.94035503357
0.446586235368
-1.19920053977
-2.5172216422
2.1617896789
-2.49271619396
0.942508396672
-2.47805561049
2.23832804916
0.463938701984
0.779612077239
-2.40495767025
2.12380581011
2.66923812981
-2.13972324611
-3.24639733255
2.56807017346
4.54703429319
-4.23174318154
0.279991508255
-0.895428924763
-0.131658172001
-0.0299145230735
-1.65070035332
1.48668985241
-2.07247826157
0.524396949335
-2.34374392551
2.56591786449
2.60091399466
-2.70467028962
-0.730383017425
1.87264341977
3.70054897265
-4.34930131576
4.40900944307
-4.78962926057
-0.6547084589
-0.484023844581
2.19525751957
-2.25837354154
0.826055977079
0.0540149613337
-0.777172182037
1.54869839831
0.250194239074
-1.96832703806
-0.335305093828
1.23571084666
-3.03517098465
2.36775358575
0.0582749201527
0.291288725487
-0.348569835224
0.260092770408
4.40421462839
-4.56421067928
-1.26356077999
0.515339195181
-0.837881246933
0.972771959835
